-1.434387256007226874e+01,5.770564822878389677e+00,9.836423610996867239e-01
-1.049560068056147699e+01,2.341185661264648132e+01,1.448497640880021864e+00
7.681050731877688520e+01,-1.530832846642223011e+01,-4.373752073399304408e+01
-3.205492106563387011e+01,-4.686020619395581832e+01,9.535225639583773116e+00
2.607059250705240672e+01,2.808986254029225549e+01,-1.854303139994504690e+01

-1.816793096879875336e+01,-1.622195429453940108e+01,2.649229320439828311e-02


-2.116170570189344247e+01,-1.488773181828596393e+01,-5.899248259118785143e+00,3.683660295129216333e+00
3.184639765179979154e+00,-1.406557399942594433e+00,1.520711019379360884e+01,9.769656750017608360e+00
6.489754957480148967e+00,2.762727573292573346e+00,-9.421589502019758200e-01,-2.421284113269944527e+00

-1.204108829432581018e+00,-5.304094132043408738e-01,-5.506894949497320724e+00,-4.112769725942611920e+00


7.591752798219315146e+00,-4.417071775739951356e+00,-8.841067783158974791e+00
6.315116352076675099e+00,-3.387651394150830164e+00,-7.118905304082488783e+00
-3.987896323793852726e+00,6.652890782340916687e+00,-6.815816175667948507e+00
-5.585633570280470472e+00,4.025354063568718388e+00,-1.275438453472136580e+00

-1.818113856793985184e+00,-4.365910435211509011e+00,2.660653175451618502e+00


