1.647168392671587656e+00,-1.319219955789529442e+00,-4.742110722296363434e+00
-3.801321739745886674e+01,-9.337624244133495566e+00,-1.246196651223878860e+01
1.318811102908864896e+01,-5.303678029096887236e+00,3.555937422284229399e+01
4.548700421980366571e+01,1.412418969048337303e+01,-4.516976767273249038e+00
-3.222814775680371469e+01,-1.348628153381268291e+01,8.781586315325515812e+00

-7.724523588004402086e+00,-2.507190309587549404e+00,-9.390022305445901551e+00


-2.617463570935803840e+00,-2.401962836281765767e+00,-6.833869306802357713e+00,9.014970186941157593e+00
-7.217936624130047996e+00,5.869894860818817506e+00,-5.745288437580509111e+00,1.924918709951601414e+00
1.084996658086208043e+01,-1.321669068224001009e+01,4.474913640563451978e+00,1.237819980354123883e+00

-2.237561523509598693e+00,1.228246116372787355e+00,1.443383276657183856e-01,-3.037633321850898849e+00


-6.406734841193456376e+00,3.576726782436318031e-02,5.834463329683970301e+00
7.248138435201535223e+00,-8.333993734855146274e-01,-8.812686287369501770e+00
-4.857282964827075666e+00,5.400320071602843441e+00,-4.391741131803436282e+00
-6.047989267026977062e-02,-8.339638561614592049e+00,5.510425798997483859e+00

-3.541897906791226514e-01,-2.037027606415334091e+00,-4.377957400675594357e+00


