-4.166340334782743682e+00,-1.486902111192726528e+00,3.442238191343770737e+00
5.397634941265819997e+00,-1.214242737842381992e+01,-3.164914521477512732e+00
2.543899167724226729e+01,1.749017076069765153e+01,-8.002686298476908178e+01
-3.043523182177934672e+01,3.799812079316971403e+00,3.851946029344686906e+01
2.126808948187941439e+01,-3.258294617710558949e+00,-4.150300369089652008e+01

-5.896006447843420872e+00,-5.279793283630791478e+00,5.489317606378190106e+00


-6.341221249821916928e+00,-3.970505570700206821e-01,-9.682982737141282215e+00,8.173549454090167643e+00
7.651106229932751468e+00,1.072563012502960333e+01,1.015798025454090758e-01,2.984439207427487251e-01
9.400769623709777090e-01,-9.030594971737381016e+00,6.291271719845503263e+00,-8.871257029987427600e+00

2.709426193408113331e-02,-3.475111530220967637e+00,-1.610785067693208283e+00,-3.784177913250648562e+00


1.453437216401894050e+00,-6.738221383139140208e+00,2.370512703922727837e+00
-5.765666879089445196e+00,-2.832605256084804068e+00,5.803185923499445842e+00
6.094931482983804827e+00,-5.578079988641998277e+00,-6.751146039200500049e+00
-6.793527256448102847e+00,5.101150180363176467e+00,-1.622361553764476216e+00

-3.586924442711810213e-01,-7.388983809595541796e-01,-2.301338407022354371e+00


