3.097022367871285375e+00,-7.434689879357715370e+01,-8.208489114677341547e+01
1.028834136901302010e+01,-3.911396141096510348e+01,-4.525446702778864250e+01
9.352800471826451911e+00,-3.643648786761752376e+02,-3.962521360027514561e+02
-2.338364321444892724e+01,2.121613779226908392e+01,2.589672543139740313e+01
1.500464688859967488e+01,-1.440549235966089725e+02,-1.597153295606990469e+02

-1.277231428304492589e+01,5.507176778656697635e+00,6.345022363479762895e+00


8.766013885624456492e+00,1.078261194604599238e+00,-1.012031667040463212e+00,6.453542912499184325e+00
-3.931001748584582511e+00,-1.653526113631604488e+01,6.203140835499115546e+00,-2.136625040663129305e+00
-4.320390436892784791e+00,-1.781118504723304596e+01,7.377775420434394604e+00,-3.470387182729774533e+00

-5.034250416797103611e+00,-9.810517030311936004e-01,1.019579340876565654e+00,-4.253552426666579400e+00


-3.995154386306572381e+00,5.576489035696997831e+00,-5.124699571409543353e+00
-6.199006637910440709e+00,2.716630151868967946e+00,4.900261807677229520e+00
3.271175040595613037e+00,-4.714995484143715387e+00,-2.848905847066302677e+00
-3.209897991619792723e+00,5.636809484679538684e+00,-3.531822313471153940e+00

-6.406726050362393510e-01,-3.341587773227062019e+00,8.350696117657536721e-01


