2.127240014548851810e-01,5.799741720864648453e-01,9.739361691687122013e-02
1.246942249227646737e+00,-2.320141567941421956e-01,1.404320319584287935e+00
-1.030010722347016516e+00,-1.347093780274127850e+00,-1.531485895292269639e+00
-2.404340332186986284e+00,-1.248403309440738879e-01,-3.374966297207033783e+00
2.055775776443663272e+00,-1.047042044876324463e+00,2.353553536476725494e+00
-7.242676589401162435e-01,2.924965114635774133e-01,-2.310029131342640485e-01

-2.451463488535998714e+00,8.014208259298696291e-01,-6.872725001075728757e-02,1.740945082516179632e+00
1.025531903844995707e+00,6.149933010824630841e-01,-1.636958297658727135e+00,-7.443499805624836929e-02
-3.408170747851386739e+00,7.285719316007943647e-01,-1.010858293194398128e+00,1.773876170691554011e+00
2.690181978739310420e+00,8.460593600291314020e-01,5.426157987552491235e-01,-1.309221994217250495e+00

2.127740201862772018e+00,-4.691671868453673788e+00,2.172480176975621902e+00
-1.796895593041772654e-01,3.644498037495008114e-01,-1.979165140830031255e+00
-1.044025636934863721e+00,-4.536009786726087345e-01,1.455488728124245901e+00
-1.638271671449183398e+00,2.119417801841253279e+00,-1.893827130899759847e+00
-7.840315733893200578e-01,6.780330334896648159e-01,-1.426549630772256660e-01

