-2.047647808807586678e-01,5.966248014096772190e-01,-6.062421748885328532e-02
1.175249153546687797e+00,-3.324491707469032220e-01,-1.019065116664575665e+00
1.539833443791500223e+00,1.739129028660488935e-02,-2.416583511238265203e+00
-2.024302896869236257e+00,2.098969781411526458e+00,3.147319396280210846e+00
1.666132984895133173e+00,-1.327656937152849936e+00,-2.228549222702208343e+00
-4.734545164118179605e-01,-2.038046332385440584e-01,3.949979959901525617e-01

-2.081747719439259292e+00,2.840752093404244505e+00,-7.858516663640803535e-02,-1.229508906344939367e+00
-3.416994030300660734e-01,-2.109582657096312097e+00,4.971550300118311450e-01,8.974492518808649955e-01
2.817531886937454821e+00,-4.210266856673791303e+00,1.127556821796074527e+00,1.700091086577163235e+00
-1.124075360142589908e+00,1.184830756934445617e+00,-3.865105592236549592e-01,3.322206635313219025e-01

2.666054777762405070e+00,-1.383153422328973647e+00,-1.506215694701628083e+00
-4.718065610466690707e+00,5.124374025796801568e+00,-1.265951320648445844e+00
2.147795086978183110e-01,-1.217363406615345811e+00,1.477279016071322837e-01
6.590140062630835960e-01,-1.987393832359239720e+00,1.004877004253514006e+00
-1.475244576294133303e+00,-1.579855485064218135e+00,-5.337225856442909810e-01

