2.301894455582147170e-01,1.917038350079733333e-01,4.207466022509145365e-01
-1.272387223704304127e+00,3.235681997832279277e-01,-8.033774463417918676e-01
-2.380657608338868858e+00,2.240855091500838725e+00,-8.032277831411013258e-01
3.056306671888910476e+00,-1.838034958072395142e+00,2.506266849706579869e+00
-2.672051322925189432e+00,6.161779312838943090e-01,-2.061391405313694580e+00
6.208302354272852153e-01,2.377262384780453042e-01,3.648453065420123043e-01

2.128368286193273118e+00,-3.142716745758062924e+00,-2.819697349526594898e+00,2.563431019131629629e+00
-9.632539338886204616e-01,2.358383792087538566e+00,2.884017840279831546e+00,-2.933658899326282987e-01
1.220259482923155225e+00,-2.620742088341993625e+00,-8.362254718437319712e-01,1.362562348661653600e+00
-2.865096651980068021e-01,2.988767749834661536e-02,9.377875683151183361e-01,-1.259231539157763313e+00

9.441705909678814734e-01,-3.203202085245033803e+00,-2.122554687658521066e-01
-3.955893876152573707e+00,3.179448216100110525e+00,-1.847545083224920948e+00
-3.776202281035626385e+00,1.709214285690373591e+00,1.105154057289583935e+00
1.343196671633323014e+00,-3.130280180770626419e+00,1.944158404481855507e-01
5.949188923016471842e-01,3.904668647030260509e-01,-8.760551683543881252e-01

