1.775727460554313575e-01,-5.246126008110715278e-01,5.546366506587572243e-01
-1.887087076068904912e+00,-9.751301566670750320e-01,-1.117409280934970939e+00
-8.064591174637605331e-01,-1.079243381205392316e+00,-3.872819483709142752e+00
2.067142750790329941e+00,-2.643718009232977617e-01,2.511024374513625812e+00
-7.895543240663580598e-01,4.551706770643996341e-02,-2.523453086342155594e+00
6.008270958355771407e-01,-8.812649249531950835e-01,9.123331975219534096e-01

2.881474242144979603e-01,-2.114511487124770106e+00,1.250387203866412333e+00,-3.255923392463501709e-01
-1.988753919479134269e-01,-3.224899030103222652e-01,5.361576577721818282e-01,-5.150269869011863122e-01
3.585502651511306205e+00,-4.070174950173189310e-01,3.034208934484869058e+00,-3.014021165607700947e+00
-1.815650453773795414e+00,7.081253896451149554e-01,-1.933305879968203467e+00,1.894313475880668562e+00

2.744948395473137737e+00,-3.087722933950904025e+00,-5.528749820171885432e-01
-1.028625093643938948e+00,1.436620497612475456e+00,-1.564207980263270903e+00
2.142935750566680397e+00,-3.166279727767370655e+00,-8.175606384621021683e-02
-3.649396890340451449e+00,2.165359417868544245e+00,4.882967508056500483e-01
-2.368973674661063900e+00,7.548462748667511546e-01,-8.003084076093038013e-02

