3.519003068547079532e-02,2.374814093900163431e-02,-6.991699086519873041e-02
-1.091859185907225305e+00,2.579916335965726670e+00,9.170429710501852849e-01
1.482535430972347912e-01,-6.210771918386666091e-01,-1.703600051367631707e+00
-1.975023857665642382e-02,-3.507805702253429025e+00,-2.148060352125839678e+00
-9.839829984703716281e-01,2.476187499863985675e+00,1.938355131228629791e+00
6.698093235989449612e-01,-1.264049253005734563e+00,-1.621567673961913647e-01

1.199252478050430448e-02,1.953090193546746789e-01,2.099062119589709674e+00,2.935565884979167706e-01
9.182811988799438607e-02,2.317469420313278849e+00,-3.571394847257665983e+00,2.413511676018873064e+00
1.582981551596802872e+00,1.103028221771372275e+00,-2.421452513100912807e+00,-2.511022186442010695e-01
-9.810330540656728715e-01,-1.230542571492349468e+00,2.203404998317760821e+00,-6.963322094782571359e-01

6.022891538173793524e-01,1.002761117902661647e+00,-1.008169047601407797e+00
-8.426511369799575268e-01,2.447435803979252533e+00,-2.056476958448902881e+00
2.102753654646830395e+00,-5.196823073912248070e+00,1.716228079908563631e+00
-2.347399455315549499e+00,7.995793672446491751e-01,-1.149493976584669008e+00
-8.780885220395787671e-01,-2.890429550812027015e-01,4.194756325956994769e-01

