-9.211041459988505986e-02,7.786127892505404491e-01,-8.518958822483563287e-02,-2.029820872582944191e-01,8.259989010427425116e-02
6.001085913151523732e-01,2.490475737094696163e-01,3.726537746494259506e-01,2.244953409460299643e-01,-1.389282438467212000e+00
6.414210801439103049e-01,7.005767813516363685e-01,3.690900584924026173e-01,2.753124540781336727e+00,5.621703532982317286e-01
6.523460591855616553e-01,8.825271662080406143e-01,8.021215170288452656e-01,-1.635343658266197764e+00,1.884289034878243063e+00
8.454063793160204732e-01,5.529364674931744883e-01,7.550110271766735659e-01,1.195711693892787197e+00,-1.343461831250609251e+00
4.797835615658793684e-01,9.628911991080835175e-01,1.905569191824119102e-02,-1.497273061777361913e-01,5.664497835370680967e-01

-1.391227593937010565e-01,-8.884767308561587751e-02,1.425269980677272086e-03
8.037068417408852472e-01,9.182970864670654265e-01,-4.911003774284811163e-01
5.313406171048565829e-01,9.526947739354962863e-02,9.336191500646422170e-02
-1.497974689220452627e+00,-1.810238440871952612e-02,1.150812572670306233e+00
-2.736454275220600030e-01,-1.209615503103635969e+00,1.101794046465088384e+00
2.385811192099161482e-01,1.600124281932122361e-01,-4.396802422592983872e-02

