-2.125699479308128803e-01,1.271210992986119281e-01,-1.251030648727457784e-01,-7.524097233549360553e-01,4.215545910080577968e-02
1.883307747688498068e+00,4.861416633946393229e-01,1.473019651564229371e-01,-7.912827363824321836e-01,4.104817961200725174e-01
-3.743687918599888365e-01,-1.215766110538362810e+00,1.938775467325212221e+00,-6.951636876441590340e-01,7.515201948422615130e-01
-1.963255079112873780e+00,-3.246893575480042093e-01,-1.499738325098401770e+00,-2.049756597215037779e-01,5.025704509496551481e-02
9.334901475787007463e-01,9.516216921464170087e-01,1.543212383075035721e+00,6.621868042517611297e-01,-6.203337346971402599e-01
-5.246426783511141112e-01,8.764263608770922476e-01,-1.745220890258082289e-02,-6.719376157365197777e-01,-4.420879150078738662e-01

1.148532619007167632e-01,1.193874077278199053e+00,-8.087627947923027305e-01
7.598119828338879556e-01,-2.587569176780811220e-01,-1.194794571350971779e+00
-1.445582682556038057e+00,-1.376933805332815168e-02,1.138264076524349910e+00
-1.309190981389555739e-02,-7.966406012765285816e-01,-2.259927307622762727e-01
2.204519517252156724e-01,-4.710689642900624530e-01,-8.751748392847533142e-02
8.884657713425875292e-01,4.959935921195339215e-01,3.359344000795365104e-01

