2.910527335048366804e-01,7.575259789278616929e-02,-3.753188233349064040e-01,5.181216609898100511e-01,5.645810650879915515e-01
3.035693096004417856e-03,1.055197954372935731e+00,1.623414428706614898e-01,2.996350590195449026e-01,3.806233852885383406e-01
8.081726458531256485e-01,-7.582782688821053663e-01,3.165986541822877420e+00,1.444652382588429429e-01,9.179556806530927426e-01
-9.582859231505494457e-02,-1.634152212164524887e+00,-1.918380535414703880e+00,2.592241919557826679e-01,3.139706369070644487e-01
6.167479696339340789e-01,1.203086171289128981e+00,9.932452856453762857e-01,7.561396076361127649e-01,5.438128271959884463e-01
-1.227347810561974784e-01,-1.689477332095562223e-01,-1.843837384563973836e-01,1.032249423744477479e+00,7.204571615614518976e-01

9.073075103861304447e-01,5.081166119456568264e-01,2.408933481164305668e-01,7.417689817218963144e-01,2.847078381946429593e-01
5.101827517602506440e-02,3.445770012997866338e-01,8.386150685156511519e-01,6.468208531670260886e-01,2.499285406194824422e+00
3.424066340799834407e+00,5.230776652777198166e-01,7.348303065691446090e-01,4.584045571870634661e-01,1.278184588795191035e+00
-2.340238101010174918e-02,1.035524676053015902e+00,1.106203459725411564e+00,7.534869928682503826e-01,-2.830049406518967969e-01
2.206286411652467472e-01,8.273619387887173326e-01,1.130341946868994363e+00,7.566389041382161063e-01,-6.497023638028395220e-01
-5.494676272473556500e-01,6.197684758171543296e-01,3.588229280330966220e-01,1.124375826838930781e+00,-3.767467082020954927e-01

-9.603051509053496249e-01,-5.778375659561940658e-02,9.771743918381072813e-01
2.839950698720970501e-01,3.552765281423573285e-01,-2.906076819533898736e-01
8.572514056385950598e-02,1.365090903327555172e-01,-6.431187611014437498e-03
5.028368641564788799e-01,4.816544495088839195e-01,1.943659793972931510e-02
1.858354195399271672e-02,1.153779306483329270e+00,-9.543301973919895431e-01
9.559679311296317983e-02,2.412816835298917384e-01,2.610741673791124318e-01

