-3.386641557540125413e-01,6.306369770543137632e-01,-1.315610481268123522e-01
-1.278823487277017446e+00,-1.484602796567599192e+00,1.718330288448249421e+00
5.068391104179816864e-01,-1.182080270177909398e+00,5.708085903920746551e-01
2.054530421412119168e+00,9.796201745170280972e-01,-2.748683471255437993e+00
-1.119798837331867469e+00,-1.484260760674305457e+00,2.931518121534077981e+00
2.621091554358189746e-01,6.026579341835340831e-01,-1.125253127400899000e+00

2.771331445923845838e+00,2.488414006178950588e-01,-7.888187592558658645e-01,9.203841991812659051e-01
2.081397424461410850e+00,1.827553012422005463e-01,-1.839252712220013075e+00,1.377391690403288571e+00
-3.687900442864309181e+00,1.204646323647339923e+00,2.425149941956354471e+00,-1.482952818666755546e+00
1.918657424008474166e-01,2.229882138971682193e-01,5.939652529770684808e-01,-7.481265922570957683e-01

2.009815787728215231e+00,-4.164699518578497184e+00,1.882591959983175078e+00
-1.671465852659287155e+00,6.374303337708233652e-01,-9.420741004297930044e-01
-2.950777966238923966e+00,2.765743677098296160e+00,-5.175702446680434665e-01
1.221511442149935123e+00,-1.273597634031922610e+00,-4.017952351526775656e-01
-5.028515021753986458e-01,2.506585832122743551e-01,-1.048305063029357331e+00

