1.927916951846088411e-02,6.759898024000532413e-02,6.687645420945750319e-01
-1.439627482418597060e+00,5.367500452775869624e-01,7.401116710728304904e-01
-7.530992677529000368e-01,5.323646851468935015e-01,-9.806907566247360375e-01
2.588619407359040725e+00,-1.647628592950595161e+00,5.645364624719925173e-01
-2.095092248259899037e+00,1.165656266239828875e+00,4.998354032286552173e-01
8.971029179950682497e-01,3.639767751422159914e-02,1.044281357663836979e-01

-2.879632813606991526e+00,-1.479816603530307306e+00,2.547033179453351615e+00,2.784833973656651307e-01
1.938345860271609489e+00,1.839617531497211023e-01,-1.371453575356257115e+00,8.881604536534404293e-01
-1.713680288457369028e-01,-2.993681537973064688e-01,-6.077526519942411110e-01,4.206086321645485793e-01
4.446092330711396423e-01,7.253657846711364376e-01,2.573861455113071184e-01,5.877994869535363431e-01

-2.806138870535453744e+00,2.301799907526705269e+00,-1.172635394361934535e+00
-4.329009508269816564e-01,1.374861811463606642e+00,-1.875412628157670236e-01
9.646123633218690596e-01,-3.020609066511283025e+00,8.791710925838509549e-01
-8.313643740766821777e-01,-5.422034765730308070e-01,2.176550970767803794e-01
9.741388954691362345e-01,-6.815766167543505991e-03,-1.071907842038371861e+00

