6.073976384155634900e-01,3.224128025848504442e-01,1.440894724482732481e-01
4.021392413633906870e-01,7.211787802412402693e-01,7.410667354432984855e-01
8.184498522391548958e-01,8.460147715371613142e-02,6.241922208071508660e-01
4.520665383135014093e-01,4.352443185150843830e-01,3.121177876753580827e-01
3.168710201897098067e-01,2.143680464280738607e-01,8.598808350644763232e-01
3.355576707534656533e-01,9.153701559332798610e-01,4.627459636535522502e-01

3.844718975214329593e-01,-1.115668562194350039e-01,3.966077606306384618e-01,8.261001644446792636e-01
4.239702669539356372e-01,3.646350274989856866e-01,-6.591593439393264586e-02,3.559612171400851621e-01
5.461719661745415566e-01,5.254850817098477567e-01,9.968870092409867212e-01,5.138930120182653161e-01
3.472708021021185254e-01,5.558528594681306778e-01,5.348243405281618568e-01,1.113520642207957323e+00

-3.810485388843328214e-01,6.091952856469203675e-02,-9.614789876388718515e-02
3.510198383715427278e-02,1.257700362071638156e-01,-2.629795342248409384e-01
-5.489845549240520706e-01,7.530115681545114514e-02,-2.990466280207279559e-01
-1.265740635944879316e-02,-6.015847954016779742e-01,-3.859381641192812795e-01
4.326503771643387675e-02,-4.779105376949068784e-01,2.438359878577658624e-01

