1.142031076579475141e-01,-3.758775744882811298e-01,3.510717531469250141e-01
-1.640116072802696445e+00,1.093062684404074281e+00,1.242273169380279096e+00
-3.082302140094104193e+00,3.526304768413388024e-01,1.707400799139029979e-01
1.839642297783484093e+00,-3.921866318083377045e+00,-8.952049054956655594e-01
-1.163374655547366521e+00,2.687044281156428571e+00,4.776702162481926695e-01
6.167896767685423498e-01,-5.330715079750462104e-01,-9.730811947109015980e-01

-1.422746855150235135e+00,-1.044095600442776606e+00,3.142618824722141824e+00,-2.759059193079948180e+00
-1.229431469719065362e+00,1.129693004571130421e+00,-2.576401190310090517e+00,3.846663932886698500e+00
2.810735162815275467e-01,-2.132892370400164272e-01,-9.562079817199524712e-01,9.529345121369402483e-01
-1.226802048162453918e-01,-9.322922093302604685e-01,-3.366506610659097398e-01,-1.813529191035822219e+00

-2.938956722309435943e-01,-1.764877394897994278e-01,1.954206644311315300e+00
-7.947388003849905624e-01,1.128043192416786189e+00,5.095025025920972839e-01
2.526007876006356234e+00,-4.011695357979276011e+00,-8.548875919478869934e-01
-4.289478635338347168e+00,3.713737363711894446e+00,-2.247506783559964472e+00
-7.382306884362614952e-01,-1.782022606281262744e+00,-1.343307205733500487e-01

